digraph Tree {
0 [label="X[1] <= 0.5000\ngini = 0.473012957861\nsamples = 891", shape="box"] ;
1 [label="X[0] <= 2.5000\ngini = 0.382835003448\nsamples = 314", shape="box"] ;
0 -> 1 ;
2 [label="X[5] <= 28.8563\ngini = 0.100276816609\nsamples = 170", shape="box"] ;
1 -> 2 ;
3 [label="X[5] <= 28.2313\ngini = 0.18\nsamples = 70", shape="box"] ;
2 -> 3 ;
4 [label="X[2] <= 56.0000\ngini = 0.158790170132\nsamples = 69", shape="box"] ;
3 -> 4 ;
5 [label="X[3] <= 0.5000\ngini = 0.138115393183\nsamples = 67", shape="box"] ;
4 -> 5 ;
6 [label="X[5] <= 13.2500\ngini = 0.0849382716049\nsamples = 45", shape="box"] ;
5 -> 6 ;
7 [label="X[5] <= 12.8250\ngini = 0.1472\nsamples = 25", shape="box"] ;
6 -> 7 ;
8 [label="gini = 0.0000\nsamples = 11\nvalue = [  0.  11.]", shape="box"] ;
7 -> 8 ;
9 [label="X[2] <= 26.0000\ngini = 0.244897959184\nsamples = 14", shape="box"] ;
7 -> 9 ;
10 [label="X[6] <= 3.0000\ngini = 0.444444444444\nsamples = 3", shape="box"] ;
9 -> 10 ;
11 [label="X[4] <= 1.0000\ngini = 0.5\nsamples = 2", shape="box"] ;
10 -> 11 ;
12 [label="gini = 0.0000\nsamples = 1\nvalue = [ 1.  0.]", shape="box"] ;
11 -> 12 ;
13 [label="gini = 0.0000\nsamples = 1\nvalue = [ 0.  1.]", shape="box"] ;
11 -> 13 ;
14 [label="gini = 0.0000\nsamples = 1\nvalue = [ 0.  1.]", shape="box"] ;
10 -> 14 ;
15 [label="X[2] <= 37.0000\ngini = 0.165289256198\nsamples = 11", shape="box"] ;
9 -> 15 ;
16 [label="gini = 0.0000\nsamples = 8\nvalue = [ 0.  8.]", shape="box"] ;
15 -> 16 ;
17 [label="X[2] <= 39.0000\ngini = 0.444444444444\nsamples = 3", shape="box"] ;
15 -> 17 ;
18 [label="gini = 0.0000\nsamples = 1\nvalue = [ 1.  0.]", shape="box"] ;
17 -> 18 ;
19 [label="gini = 0.0000\nsamples = 2\nvalue = [ 0.  2.]", shape="box"] ;
17 -> 19 ;
20 [label="gini = 0.0000\nsamples = 20\nvalue = [  0.  20.]", shape="box"] ;
6 -> 20 ;
21 [label="X[2] <= 25.0000\ngini = 0.235537190083\nsamples = 22", shape="box"] ;
5 -> 21 ;
22 [label="gini = 0.0000\nsamples = 7\nvalue = [ 0.  7.]", shape="box"] ;
21 -> 22 ;
23 [label="X[2] <= 27.5000\ngini = 0.32\nsamples = 15", shape="box"] ;
21 -> 23 ;
24 [label="X[5] <= 17.4291\ngini = 0.444444444444\nsamples = 3", shape="box"] ;
23 -> 24 ;
25 [label="gini = 0.0000\nsamples = 1\nvalue = [ 0.  1.]", shape="box"] ;
24 -> 25 ;
26 [label="gini = 0.0000\nsamples = 2\nvalue = [ 2.  0.]", shape="box"] ;
24 -> 26 ;
27 [label="X[2] <= 43.0000\ngini = 0.152777777778\nsamples = 12", shape="box"] ;
23 -> 27 ;
28 [label="gini = 0.0000\nsamples = 9\nvalue = [ 0.  9.]", shape="box"] ;
27 -> 28 ;
29 [label="X[2] <= 44.5000\ngini = 0.444444444444\nsamples = 3", shape="box"] ;
27 -> 29 ;
30 [label="gini = 0.0000\nsamples = 1\nvalue = [ 1.  0.]", shape="box"] ;
29 -> 30 ;
31 [label="gini = 0.0000\nsamples = 2\nvalue = [ 0.  2.]", shape="box"] ;
29 -> 31 ;
32 [label="X[5] <= 18.5250\ngini = 0.5\nsamples = 2", shape="box"] ;
4 -> 32 ;
33 [label="gini = 0.0000\nsamples = 1\nvalue = [ 1.  0.]", shape="box"] ;
32 -> 33 ;
34 [label="gini = 0.0000\nsamples = 1\nvalue = [ 0.  1.]", shape="box"] ;
32 -> 34 ;
35 [label="gini = 0.0000\nsamples = 1\nvalue = [ 1.  0.]", shape="box"] ;
3 -> 35 ;
36 [label="X[4] <= 1.5000\ngini = 0.0392\nsamples = 100", shape="box"] ;
2 -> 36 ;
37 [label="gini = 0.0000\nsamples = 84\nvalue = [  0.  84.]", shape="box"] ;
36 -> 37 ;
38 [label="X[2] <= 2.5000\ngini = 0.21875\nsamples = 16", shape="box"] ;
36 -> 38 ;
39 [label="gini = 0.0000\nsamples = 1\nvalue = [ 1.  0.]", shape="box"] ;
38 -> 39 ;
40 [label="X[2] <= 24.5000\ngini = 0.124444444444\nsamples = 15", shape="box"] ;
38 -> 40 ;
41 [label="gini = 0.0000\nsamples = 10\nvalue = [  0.  10.]", shape="box"] ;
40 -> 41 ;
42 [label="X[2] <= 28.0000\ngini = 0.32\nsamples = 5", shape="box"] ;
40 -> 42 ;
43 [label="gini = 0.0000\nsamples = 1\nvalue = [ 1.  0.]", shape="box"] ;
42 -> 43 ;
44 [label="gini = 0.0000\nsamples = 4\nvalue = [ 0.  4.]", shape="box"] ;
42 -> 44 ;
45 [label="X[5] <= 23.3500\ngini = 0.5\nsamples = 144", shape="box"] ;
1 -> 45 ;
46 [label="X[2] <= 16.5000\ngini = 0.4838921762\nsamples = 117", shape="box"] ;
45 -> 46 ;
47 [label="X[3] <= 2.5000\ngini = 0.403816558941\nsamples = 57", shape="box"] ;
46 -> 47 ;
48 [label="X[5] <= 15.3729\ngini = 0.379504132231\nsamples = 55", shape="box"] ;
47 -> 48 ;
49 [label="X[5] <= 13.9354\ngini = 0.449732302201\nsamples = 41", shape="box"] ;
48 -> 49 ;
50 [label="X[7] <= 1.5000\ngini = 0.382040816327\nsamples = 35", shape="box"] ;
49 -> 50 ;
51 [label="X[4] <= 1.5000\ngini = 0.252400548697\nsamples = 27", shape="box"] ;
50 -> 51 ;
52 [label="X[5] <= 8.0833\ngini = 0.204142011834\nsamples = 26", shape="box"] ;
51 -> 52 ;
53 [label="X[5] <= 7.6813\ngini = 0.158790170132\nsamples = 23", shape="box"] ;
52 -> 53 ;
54 [label="X[5] <= 7.4292\ngini = 0.32\nsamples = 5", shape="box"] ;
53 -> 54 ;
55 [label="gini = 0.0000\nsamples = 4\nvalue = [ 0.  4.]", shape="box"] ;
54 -> 55 ;
56 [label="gini = 0.0000\nsamples = 1\nvalue = [ 1.  0.]", shape="box"] ;
54 -> 56 ;
57 [label="X[5] <= 7.7688\ngini = 0.104938271605\nsamples = 18", shape="box"] ;
53 -> 57 ;
58 [label="X[5] <= 7.7438\ngini = 0.152777777778\nsamples = 12", shape="box"] ;
57 -> 58 ;
59 [label="gini = 0.0000\nsamples = 3\nvalue = [ 0.  3.]", shape="box"] ;
58 -> 59 ;
60 [label="X[2] <= 8.0000\ngini = 0.197530864198\nsamples = 9", shape="box"] ;
58 -> 60 ;
61 [label="gini = 0.2188\nsamples = 8\nvalue = [ 1.  7.]", shape="box"] ;
60 -> 61 ;
62 [label="gini = 0.0000\nsamples = 1\nvalue = [ 0.  1.]", shape="box"] ;
60 -> 62 ;
63 [label="gini = 0.0000\nsamples = 6\nvalue = [ 0.  6.]", shape="box"] ;
57 -> 63 ;
64 [label="X[5] <= 9.6896\ngini = 0.444444444444\nsamples = 3", shape="box"] ;
52 -> 64 ;
65 [label="gini = 0.0000\nsamples = 1\nvalue = [ 1.  0.]", shape="box"] ;
64 -> 65 ;
66 [label="gini = 0.0000\nsamples = 2\nvalue = [ 0.  2.]", shape="box"] ;
64 -> 66 ;
67 [label="gini = 0.0000\nsamples = 1\nvalue = [ 1.  0.]", shape="box"] ;
51 -> 67 ;
68 [label="X[5] <= 10.7979\ngini = 0.46875\nsamples = 8", shape="box"] ;
50 -> 68 ;
69 [label="gini = 0.0000\nsamples = 5\nvalue = [ 5.  0.]", shape="box"] ;
68 -> 69 ;
70 [label="gini = 0.0000\nsamples = 3\nvalue = [ 0.  3.]", shape="box"] ;
68 -> 70 ;
71 [label="X[2] <= 14.7500\ngini = 0.277777777778\nsamples = 6", shape="box"] ;
49 -> 71 ;
72 [label="gini = 0.0000\nsamples = 5\nvalue = [ 5.  0.]", shape="box"] ;
71 -> 72 ;
73 [label="gini = 0.0000\nsamples = 1\nvalue = [ 0.  1.]", shape="box"] ;
71 -> 73 ;
74 [label="gini = 0.0000\nsamples = 14\nvalue = [  0.  14.]", shape="box"] ;
48 -> 74 ;
75 [label="gini = 0.0000\nsamples = 2\nvalue = [ 2.  0.]", shape="box"] ;
47 -> 75 ;
76 [label="X[2] <= 36.5000\ngini = 0.497777777778\nsamples = 60", shape="box"] ;
46 -> 76 ;
77 [label="X[2] <= 32.5000\ngini = 0.499822000712\nsamples = 53", shape="box"] ;
76 -> 77 ;
78 [label="X[4] <= 1.5000\ngini = 0.4992\nsamples = 50", shape="box"] ;
77 -> 78 ;
79 [label="X[5] <= 7.8875\ngini = 0.490702479339\nsamples = 44", shape="box"] ;
78 -> 79 ;
80 [label="X[2] <= 28.2500\ngini = 0.46875\nsamples = 16", shape="box"] ;
79 -> 80 ;
81 [label="X[2] <= 18.5000\ngini = 0.408163265306\nsamples = 14", shape="box"] ;
80 -> 81 ;
82 [label="X[7] <= 1.5000\ngini = 0.444444444444\nsamples = 3", shape="box"] ;
81 -> 82 ;
83 [label="gini = 0.0000\nsamples = 1\nvalue = [ 1.  0.]", shape="box"] ;
82 -> 83 ;
84 [label="X[5] <= 7.6354\ngini = 0.5\nsamples = 2", shape="box"] ;
82 -> 84 ;
85 [label="gini = 0.0000\nsamples = 1\nvalue = [ 0.  1.]", shape="box"] ;
84 -> 85 ;
86 [label="gini = 0.0000\nsamples = 1\nvalue = [ 1.  0.]", shape="box"] ;
84 -> 86 ;
87 [label="X[2] <= 24.0000\ngini = 0.297520661157\nsamples = 11", shape="box"] ;
81 -> 87 ;
88 [label="X[7] <= 1.5000\ngini = 0.197530864198\nsamples = 9", shape="box"] ;
87 -> 88 ;
89 [label="X[5] <= 7.8146\ngini = 0.444444444444\nsamples = 3", shape="box"] ;
88 -> 89 ;
90 [label="X[2] <= 21.5000\ngini = 0.5\nsamples = 2", shape="box"] ;
89 -> 90 ;
91 [label="gini = 0.0000\nsamples = 1\nvalue = [ 1.  0.]", shape="box"] ;
90 -> 91 ;
92 [label="gini = 0.0000\nsamples = 1\nvalue = [ 0.  1.]", shape="box"] ;
90 -> 92 ;
93 [label="gini = 0.0000\nsamples = 1\nvalue = [ 0.  1.]", shape="box"] ;
89 -> 93 ;
94 [label="gini = 0.0000\nsamples = 6\nvalue = [ 0.  6.]", shape="box"] ;
88 -> 94 ;
95 [label="X[2] <= 25.5000\ngini = 0.5\nsamples = 2", shape="box"] ;
87 -> 95 ;
96 [label="gini = 0.0000\nsamples = 1\nvalue = [ 1.  0.]", shape="box"] ;
95 -> 96 ;
97 [label="gini = 0.0000\nsamples = 1\nvalue = [ 0.  1.]", shape="box"] ;
95 -> 97 ;
98 [label="gini = 0.0000\nsamples = 2\nvalue = [ 2.  0.]", shape="box"] ;
80 -> 98 ;
99 [label="X[2] <= 23.5000\ngini = 0.436224489796\nsamples = 28", shape="box"] ;
79 -> 99 ;
100 [label="X[2] <= 19.0000\ngini = 0.277777777778\nsamples = 12", shape="box"] ;
99 -> 100 ;
101 [label="X[5] <= 12.1479\ngini = 0.444444444444\nsamples = 6", shape="box"] ;
100 -> 101 ;
102 [label="gini = 0.0000\nsamples = 2\nvalue = [ 0.  2.]", shape="box"] ;
101 -> 102 ;
103 [label="gini = 0.0000\nsamples = 4\nvalue = [ 4.  0.]", shape="box"] ;
101 -> 103 ;
104 [label="gini = 0.0000\nsamples = 6\nvalue = [ 6.  0.]", shape="box"] ;
100 -> 104 ;
105 [label="X[3] <= 0.5000\ngini = 0.4921875\nsamples = 16", shape="box"] ;
99 -> 105 ;
106 [label="X[2] <= 25.0000\ngini = 0.46875\nsamples = 8", shape="box"] ;
105 -> 106 ;
107 [label="gini = 0.0000\nsamples = 1\nvalue = [ 1.  0.]", shape="box"] ;
106 -> 107 ;
108 [label="X[5] <= 7.9104\ngini = 0.408163265306\nsamples = 7", shape="box"] ;
106 -> 108 ;
109 [label="gini = 0.0000\nsamples = 1\nvalue = [ 1.  0.]", shape="box"] ;
108 -> 109 ;
110 [label="X[5] <= 8.6729\ngini = 0.277777777778\nsamples = 6", shape="box"] ;
108 -> 110 ;
111 [label="X[2] <= 28.5000\ngini = 0.444444444444\nsamples = 3", shape="box"] ;
110 -> 111 ;
112 [label="gini = 0.0000\nsamples = 2\nvalue = [ 0.  2.]", shape="box"] ;
111 -> 112 ;
113 [label="gini = 0.0000\nsamples = 1\nvalue = [ 1.  0.]", shape="box"] ;
111 -> 113 ;
114 [label="gini = 0.0000\nsamples = 3\nvalue = [ 0.  3.]", shape="box"] ;
110 -> 114 ;
115 [label="X[2] <= 24.5000\ngini = 0.375\nsamples = 8", shape="box"] ;
105 -> 115 ;
116 [label="gini = 0.0000\nsamples = 1\nvalue = [ 0.  1.]", shape="box"] ;
115 -> 116 ;
117 [label="X[5] <= 19.2625\ngini = 0.244897959184\nsamples = 7", shape="box"] ;
115 -> 117 ;
118 [label="gini = 0.0000\nsamples = 6\nvalue = [ 6.  0.]", shape="box"] ;
117 -> 118 ;
119 [label="gini = 0.0000\nsamples = 1\nvalue = [ 0.  1.]", shape="box"] ;
117 -> 119 ;
120 [label="X[5] <= 20.1667\ngini = 0.277777777778\nsamples = 6", shape="box"] ;
78 -> 120 ;
121 [label="gini = 0.0000\nsamples = 5\nvalue = [ 0.  5.]", shape="box"] ;
120 -> 121 ;
122 [label="gini = 0.0000\nsamples = 1\nvalue = [ 1.  0.]", shape="box"] ;
120 -> 122 ;
123 [label="gini = 0.0000\nsamples = 3\nvalue = [ 0.  3.]", shape="box"] ;
77 -> 123 ;
124 [label="X[2] <= 55.0000\ngini = 0.244897959184\nsamples = 7", shape="box"] ;
76 -> 124 ;
125 [label="gini = 0.0000\nsamples = 6\nvalue = [ 6.  0.]", shape="box"] ;
124 -> 125 ;
126 [label="gini = 0.0000\nsamples = 1\nvalue = [ 0.  1.]", shape="box"] ;
124 -> 126 ;
127 [label="X[4] <= 0.5000\ngini = 0.197530864198\nsamples = 27", shape="box"] ;
45 -> 127 ;
128 [label="gini = 0.0000\nsamples = 1\nvalue = [ 0.  1.]", shape="box"] ;
127 -> 128 ;
129 [label="X[5] <= 31.3312\ngini = 0.14201183432\nsamples = 26", shape="box"] ;
127 -> 129 ;
130 [label="gini = 0.0000\nsamples = 15\nvalue = [ 15.   0.]", shape="box"] ;
129 -> 130 ;
131 [label="X[5] <= 32.8812\ngini = 0.297520661157\nsamples = 11", shape="box"] ;
129 -> 131 ;
132 [label="gini = 0.0000\nsamples = 2\nvalue = [ 0.  2.]", shape="box"] ;
131 -> 132 ;
133 [label="gini = 0.0000\nsamples = 9\nvalue = [ 9.  0.]", shape="box"] ;
131 -> 133 ;
134 [label="X[6] <= 0.5000\ngini = 0.306443716228\nsamples = 577", shape="box"] ;
0 -> 134 ;
135 [label="X[4] <= 0.5000\ngini = 0.234834859201\nsamples = 471", shape="box"] ;
134 -> 135 ;
136 [label="X[5] <= 26.2750\ngini = 0.208943758573\nsamples = 405", shape="box"] ;
135 -> 136 ;
137 [label="X[2] <= 32.5000\ngini = 0.181306565495\nsamples = 367", shape="box"] ;
136 -> 137 ;
138 [label="X[2] <= 30.7500\ngini = 0.20371616376\nsamples = 278", shape="box"] ;
137 -> 138 ;
139 [label="X[7] <= 0.5000\ngini = 0.184244386936\nsamples = 263", shape="box"] ;
138 -> 139 ;
140 [label="X[2] <= 11.5000\ngini = 0.32\nsamples = 35", shape="box"] ;
139 -> 140 ;
141 [label="X[0] <= 2.5000\ngini = 0.18836565097\nsamples = 19", shape="box"] ;
140 -> 141 ;
142 [label="X[5] <= 14.4563\ngini = 0.5\nsamples = 2", shape="box"] ;
141 -> 142 ;
143 [label="gini = 0.0000\nsamples = 1\nvalue = [ 0.  1.]", shape="box"] ;
142 -> 143 ;
144 [label="gini = 0.0000\nsamples = 1\nvalue = [ 1.  0.]", shape="box"] ;
142 -> 144 ;
145 [label="X[5] <= 7.5625\ngini = 0.110726643599\nsamples = 17", shape="box"] ;
141 -> 145 ;
146 [label="X[5] <= 7.2271\ngini = 0.165289256198\nsamples = 11", shape="box"] ;
145 -> 146 ;
147 [label="gini = 0.0000\nsamples = 5\nvalue = [ 5.  0.]", shape="box"] ;
146 -> 147 ;
148 [label="gini = 0.2778\nsamples = 6\nvalue = [ 5.  1.]", shape="box"] ;
146 -> 148 ;
149 [label="gini = 0.0000\nsamples = 6\nvalue = [ 6.  0.]", shape="box"] ;
145 -> 149 ;
150 [label="X[2] <= 22.5000\ngini = 0.4296875\nsamples = 16", shape="box"] ;
140 -> 150 ;
151 [label="X[5] <= 5.6187\ngini = 0.48\nsamples = 5", shape="box"] ;
150 -> 151 ;
152 [label="gini = 0.0000\nsamples = 1\nvalue = [ 1.  0.]", shape="box"] ;
151 -> 152 ;
153 [label="X[2] <= 21.0000\ngini = 0.375\nsamples = 4", shape="box"] ;
151 -> 153 ;
154 [label="gini = 0.0000\nsamples = 2\nvalue = [ 0.  2.]", shape="box"] ;
153 -> 154 ;
155 [label="X[5] <= 7.2271\ngini = 0.5\nsamples = 2", shape="box"] ;
153 -> 155 ;
156 [label="gini = 0.0000\nsamples = 1\nvalue = [ 0.  1.]", shape="box"] ;
155 -> 156 ;
157 [label="gini = 0.0000\nsamples = 1\nvalue = [ 1.  0.]", shape="box"] ;
155 -> 157 ;
158 [label="X[5] <= 7.5625\ngini = 0.297520661157\nsamples = 11", shape="box"] ;
150 -> 158 ;
159 [label="gini = 0.0000\nsamples = 5\nvalue = [ 5.  0.]", shape="box"] ;
158 -> 159 ;
160 [label="X[3] <= 0.5000\ngini = 0.444444444444\nsamples = 6", shape="box"] ;
158 -> 160 ;
161 [label="X[0] <= 2.5000\ngini = 0.444444444444\nsamples = 3", shape="box"] ;
160 -> 161 ;
162 [label="gini = 0.0000\nsamples = 1\nvalue = [ 1.  0.]", shape="box"] ;
161 -> 162 ;
163 [label="gini = 0.0000\nsamples = 2\nvalue = [ 0.  2.]", shape="box"] ;
161 -> 163 ;
164 [label="gini = 0.0000\nsamples = 3\nvalue = [ 3.  0.]", shape="box"] ;
160 -> 164 ;
165 [label="X[2] <= 26.5000\ngini = 0.160049245922\nsamples = 228", shape="box"] ;
139 -> 165 ;
166 [label="X[3] <= 1.5000\ngini = 0.137845178814\nsamples = 188", shape="box"] ;
165 -> 166 ;
167 [label="X[5] <= 8.1354\ngini = 0.131320888469\nsamples = 184", shape="box"] ;
166 -> 167 ;
168 [label="X[5] <= 8.0813\ngini = 0.159360040312\nsamples = 126", shape="box"] ;
167 -> 168 ;
169 [label="X[3] <= 0.5000\ngini = 0.1472\nsamples = 125", shape="box"] ;
168 -> 169 ;
170 [label="X[2] <= 8.0000\ngini = 0.127401563299\nsamples = 117", shape="box"] ;
169 -> 170 ;
171 [label="X[5] <= 7.8021\ngini = 0.0688775510204\nsamples = 56", shape="box"] ;
170 -> 171 ;
172 [label="X[5] <= 7.7625\ngini = 0.124444444444\nsamples = 30", shape="box"] ;
171 -> 172 ;
173 [label="X[5] <= 7.7438\ngini = 0.0688775510204\nsamples = 28", shape="box"] ;
172 -> 173 ;
174 [label="gini = 0.0000\nsamples = 19\nvalue = [ 19.   0.]", shape="box"] ;
173 -> 174 ;
175 [label="gini = 0.1975\nsamples = 9\nvalue = [ 8.  1.]", shape="box"] ;
173 -> 175 ;
176 [label="gini = 0.5000\nsamples = 2\nvalue = [ 1.  1.]", shape="box"] ;
172 -> 176 ;
177 [label="gini = 0.0000\nsamples = 26\nvalue = [ 26.   0.]", shape="box"] ;
171 -> 177 ;
178 [label="X[5] <= 3.3750\ngini = 0.177371674281\nsamples = 61", shape="box"] ;
170 -> 178 ;
179 [label="X[2] <= 22.0000\ngini = 0.5\nsamples = 2", shape="box"] ;
178 -> 179 ;
180 [label="gini = 0.0000\nsamples = 1\nvalue = [ 1.  0.]", shape="box"] ;
179 -> 180 ;
181 [label="gini = 0.0000\nsamples = 1\nvalue = [ 0.  1.]", shape="box"] ;
179 -> 181 ;
182 [label="X[5] <= 7.9875\ngini = 0.155127836828\nsamples = 59", shape="box"] ;
178 -> 182 ;
183 [label="X[5] <= 7.1958\ngini = 0.0831758034026\nsamples = 46", shape="box"] ;
182 -> 183 ;
184 [label="X[5] <= 7.1333\ngini = 0.21875\nsamples = 8", shape="box"] ;
183 -> 184 ;
185 [label="gini = 0.0000\nsamples = 7\nvalue = [ 7.  0.]", shape="box"] ;
184 -> 185 ;
186 [label="gini = 0.0000\nsamples = 1\nvalue = [ 0.  1.]", shape="box"] ;
184 -> 186 ;
187 [label="X[5] <= 7.7979\ngini = 0.0512465373961\nsamples = 38", shape="box"] ;
183 -> 187 ;
188 [label="X[5] <= 7.7854\ngini = 0.0997229916898\nsamples = 19", shape="box"] ;
187 -> 188 ;
189 [label="gini = 0.0000\nsamples = 15\nvalue = [ 15.   0.]", shape="box"] ;
188 -> 189 ;
190 [label="X[2] <= 21.5000\ngini = 0.375\nsamples = 4", shape="box"] ;
188 -> 190 ;
191 [label="X[2] <= 19.5000\ngini = 0.5\nsamples = 2", shape="box"] ;
190 -> 191 ;
192 [label="gini = 0.0000\nsamples = 1\nvalue = [ 1.  0.]", shape="box"] ;
191 -> 192 ;
193 [label="gini = 0.0000\nsamples = 1\nvalue = [ 0.  1.]", shape="box"] ;
191 -> 193 ;
194 [label="gini = 0.0000\nsamples = 2\nvalue = [ 2.  0.]", shape="box"] ;
190 -> 194 ;
195 [label="gini = 0.0000\nsamples = 19\nvalue = [ 19.   0.]", shape="box"] ;
187 -> 195 ;
196 [label="X[2] <= 19.5000\ngini = 0.355029585799\nsamples = 13", shape="box"] ;
182 -> 196 ;
197 [label="X[2] <= 17.0000\ngini = 0.48\nsamples = 5", shape="box"] ;
196 -> 197 ;
198 [label="gini = 0.5000\nsamples = 2\nvalue = [ 1.  1.]", shape="box"] ;
197 -> 198 ;
199 [label="X[2] <= 18.5000\ngini = 0.444444444444\nsamples = 3", shape="box"] ;
197 -> 199 ;
200 [label="gini = 0.0000\nsamples = 1\nvalue = [ 0.  1.]", shape="box"] ;
199 -> 200 ;
201 [label="gini = 0.5000\nsamples = 2\nvalue = [ 1.  1.]", shape="box"] ;
199 -> 201 ;
202 [label="gini = 0.0000\nsamples = 8\nvalue = [ 8.  0.]", shape="box"] ;
196 -> 202 ;
203 [label="X[5] <= 7.8896\ngini = 0.375\nsamples = 8", shape="box"] ;
169 -> 203 ;
204 [label="X[2] <= 23.5000\ngini = 0.244897959184\nsamples = 7", shape="box"] ;
203 -> 204 ;
205 [label="gini = 0.0000\nsamples = 4\nvalue = [ 4.  0.]", shape="box"] ;
204 -> 205 ;
206 [label="X[2] <= 25.5000\ngini = 0.444444444444\nsamples = 3", shape="box"] ;
204 -> 206 ;
207 [label="gini = 0.5000\nsamples = 2\nvalue = [ 1.  1.]", shape="box"] ;
206 -> 207 ;
208 [label="gini = 0.0000\nsamples = 1\nvalue = [ 1.  0.]", shape="box"] ;
206 -> 208 ;
209 [label="gini = 0.0000\nsamples = 1\nvalue = [ 0.  1.]", shape="box"] ;
203 -> 209 ;
210 [label="gini = 0.0000\nsamples = 1\nvalue = [ 0.  1.]", shape="box"] ;
168 -> 210 ;
211 [label="X[0] <= 2.5000\ngini = 0.0665873959572\nsamples = 58", shape="box"] ;
167 -> 211 ;
212 [label="X[2] <= 8.0000\ngini = 0.165289256198\nsamples = 22", shape="box"] ;
211 -> 212 ;
213 [label="X[0] <= 1.5000\ngini = 0.5\nsamples = 2", shape="box"] ;
212 -> 213 ;
214 [label="gini = 0.0000\nsamples = 1\nvalue = [ 1.  0.]", shape="box"] ;
213 -> 214 ;
215 [label="gini = 0.0000\nsamples = 1\nvalue = [ 0.  1.]", shape="box"] ;
213 -> 215 ;
216 [label="X[5] <= 11.0000\ngini = 0.095\nsamples = 20", shape="box"] ;
212 -> 216 ;
217 [label="X[2] <= 21.0000\ngini = 0.277777777778\nsamples = 6", shape="box"] ;
216 -> 217 ;
218 [label="X[2] <= 17.5000\ngini = 0.444444444444\nsamples = 3", shape="box"] ;
217 -> 218 ;
219 [label="gini = 0.0000\nsamples = 1\nvalue = [ 1.  0.]", shape="box"] ;
218 -> 219 ;
220 [label="gini = 0.5000\nsamples = 2\nvalue = [ 1.  1.]", shape="box"] ;
218 -> 220 ;
221 [label="gini = 0.0000\nsamples = 3\nvalue = [ 3.  0.]", shape="box"] ;
217 -> 221 ;
222 [label="gini = 0.0000\nsamples = 14\nvalue = [ 14.   0.]", shape="box"] ;
216 -> 222 ;
223 [label="gini = 0.0000\nsamples = 36\nvalue = [ 36.   0.]", shape="box"] ;
211 -> 223 ;
224 [label="X[2] <= 8.0000\ngini = 0.375\nsamples = 4", shape="box"] ;
166 -> 224 ;
225 [label="gini = 0.0000\nsamples = 1\nvalue = [ 0.  1.]", shape="box"] ;
224 -> 225 ;
226 [label="gini = 0.0000\nsamples = 3\nvalue = [ 3.  0.]", shape="box"] ;
224 -> 226 ;
227 [label="X[7] <= 1.5000\ngini = 0.255\nsamples = 40", shape="box"] ;
165 -> 227 ;
228 [label="gini = 0.0000\nsamples = 1\nvalue = [ 0.  1.]", shape="box"] ;
227 -> 228 ;
229 [label="X[5] <= 7.0104\ngini = 0.223537146614\nsamples = 39", shape="box"] ;
227 -> 229 ;
230 [label="gini = 0.0000\nsamples = 1\nvalue = [ 0.  1.]", shape="box"] ;
229 -> 230 ;
231 [label="X[2] <= 27.5000\ngini = 0.18836565097\nsamples = 38", shape="box"] ;
229 -> 231 ;
232 [label="X[5] <= 10.8313\ngini = 0.444444444444\nsamples = 6", shape="box"] ;
231 -> 232 ;
233 [label="X[5] <= 7.8458\ngini = 0.444444444444\nsamples = 3", shape="box"] ;
232 -> 233 ;
234 [label="gini = 0.0000\nsamples = 1\nvalue = [ 0.  1.]", shape="box"] ;
233 -> 234 ;
235 [label="X[5] <= 8.2792\ngini = 0.5\nsamples = 2", shape="box"] ;
233 -> 235 ;
236 [label="gini = 0.0000\nsamples = 1\nvalue = [ 1.  0.]", shape="box"] ;
235 -> 236 ;
237 [label="gini = 0.0000\nsamples = 1\nvalue = [ 0.  1.]", shape="box"] ;
235 -> 237 ;
238 [label="gini = 0.0000\nsamples = 3\nvalue = [ 3.  0.]", shape="box"] ;
232 -> 238 ;
239 [label="X[5] <= 9.4916\ngini = 0.1171875\nsamples = 32", shape="box"] ;
231 -> 239 ;
240 [label="gini = 0.0000\nsamples = 15\nvalue = [ 15.   0.]", shape="box"] ;
239 -> 240 ;
241 [label="X[5] <= 10.0000\ngini = 0.207612456747\nsamples = 17", shape="box"] ;
239 -> 241 ;
242 [label="X[2] <= 28.5000\ngini = 0.5\nsamples = 4", shape="box"] ;
241 -> 242 ;
243 [label="gini = 0.0000\nsamples = 2\nvalue = [ 2.  0.]", shape="box"] ;
242 -> 243 ;
244 [label="gini = 0.0000\nsamples = 2\nvalue = [ 0.  2.]", shape="box"] ;
242 -> 244 ;
245 [label="gini = 0.0000\nsamples = 13\nvalue = [ 13.   0.]", shape="box"] ;
241 -> 245 ;
246 [label="X[5] <= 20.9250\ngini = 0.444444444444\nsamples = 15", shape="box"] ;
138 -> 246 ;
247 [label="X[5] <= 7.8146\ngini = 0.408163265306\nsamples = 14", shape="box"] ;
246 -> 247 ;
248 [label="gini = 0.0000\nsamples = 3\nvalue = [ 3.  0.]", shape="box"] ;
247 -> 248 ;
249 [label="X[5] <= 7.8750\ngini = 0.462809917355\nsamples = 11", shape="box"] ;
247 -> 249 ;
250 [label="gini = 0.0000\nsamples = 1\nvalue = [ 0.  1.]", shape="box"] ;
249 -> 250 ;
251 [label="X[2] <= 31.5000\ngini = 0.42\nsamples = 10", shape="box"] ;
249 -> 251 ;
252 [label="X[5] <= 9.2125\ngini = 0.444444444444\nsamples = 3", shape="box"] ;
251 -> 252 ;
253 [label="gini = 0.0000\nsamples = 1\nvalue = [ 0.  1.]", shape="box"] ;
252 -> 253 ;
254 [label="X[5] <= 11.7500\ngini = 0.5\nsamples = 2", shape="box"] ;
252 -> 254 ;
255 [label="gini = 0.0000\nsamples = 1\nvalue = [ 1.  0.]", shape="box"] ;
254 -> 255 ;
256 [label="gini = 0.0000\nsamples = 1\nvalue = [ 0.  1.]", shape="box"] ;
254 -> 256 ;
257 [label="X[5] <= 8.1438\ngini = 0.244897959184\nsamples = 7", shape="box"] ;
251 -> 257 ;
258 [label="X[5] <= 7.9104\ngini = 0.375\nsamples = 4", shape="box"] ;
257 -> 258 ;
259 [label="gini = 0.0000\nsamples = 1\nvalue = [ 1.  0.]", shape="box"] ;
258 -> 259 ;
260 [label="gini = 0.4444\nsamples = 3\nvalue = [ 2.  1.]", shape="box"] ;
258 -> 260 ;
261 [label="gini = 0.0000\nsamples = 3\nvalue = [ 3.  0.]", shape="box"] ;
257 -> 261 ;
262 [label="gini = 0.0000\nsamples = 1\nvalue = [ 0.  1.]", shape="box"] ;
246 -> 262 ;
263 [label="X[2] <= 38.5000\ngini = 0.106047216261\nsamples = 89", shape="box"] ;
137 -> 263 ;
264 [label="gini = 0.0000\nsamples = 35\nvalue = [ 35.   0.]", shape="box"] ;
263 -> 264 ;
265 [label="X[2] <= 45.2500\ngini = 0.168038408779\nsamples = 54", shape="box"] ;
263 -> 265 ;
266 [label="X[5] <= 7.9104\ngini = 0.287334593573\nsamples = 23", shape="box"] ;
265 -> 266 ;
267 [label="gini = 0.0000\nsamples = 7\nvalue = [ 7.  0.]", shape="box"] ;
266 -> 267 ;
268 [label="X[5] <= 7.9875\ngini = 0.375\nsamples = 16", shape="box"] ;
266 -> 268 ;
269 [label="X[2] <= 41.5000\ngini = 0.444444444444\nsamples = 3", shape="box"] ;
268 -> 269 ;
270 [label="gini = 0.5000\nsamples = 2\nvalue = [ 1.  1.]", shape="box"] ;
269 -> 270 ;
271 [label="gini = 0.0000\nsamples = 1\nvalue = [ 0.  1.]", shape="box"] ;
269 -> 271 ;
272 [label="X[2] <= 44.5000\ngini = 0.260355029586\nsamples = 13", shape="box"] ;
268 -> 272 ;
273 [label="X[0] <= 2.5000\ngini = 0.152777777778\nsamples = 12", shape="box"] ;
272 -> 273 ;
274 [label="X[2] <= 40.5000\ngini = 0.277777777778\nsamples = 6", shape="box"] ;
273 -> 274 ;
275 [label="gini = 0.0000\nsamples = 3\nvalue = [ 3.  0.]", shape="box"] ;
274 -> 275 ;
276 [label="X[5] <= 19.5000\ngini = 0.444444444444\nsamples = 3", shape="box"] ;
274 -> 276 ;
277 [label="gini = 0.5000\nsamples = 2\nvalue = [ 1.  1.]", shape="box"] ;
276 -> 277 ;
278 [label="gini = 0.0000\nsamples = 1\nvalue = [ 1.  0.]", shape="box"] ;
276 -> 278 ;
279 [label="gini = 0.0000\nsamples = 6\nvalue = [ 6.  0.]", shape="box"] ;
273 -> 279 ;
280 [label="gini = 0.0000\nsamples = 1\nvalue = [ 0.  1.]", shape="box"] ;
272 -> 280 ;
281 [label="X[2] <= 61.5000\ngini = 0.0624349635796\nsamples = 31", shape="box"] ;
265 -> 281 ;
282 [label="gini = 0.0000\nsamples = 24\nvalue = [ 24.   0.]", shape="box"] ;
281 -> 282 ;
283 [label="X[2] <= 63.0000\ngini = 0.244897959184\nsamples = 7", shape="box"] ;
281 -> 283 ;
284 [label="gini = 0.0000\nsamples = 1\nvalue = [ 0.  1.]", shape="box"] ;
283 -> 284 ;
285 [label="gini = 0.0000\nsamples = 6\nvalue = [ 6.  0.]", shape="box"] ;
283 -> 285 ;
286 [label="X[0] <= 2.5000\ngini = 0.41135734072\nsamples = 38", shape="box"] ;
136 -> 286 ;
287 [label="X[5] <= 26.7750\ngini = 0.312174817898\nsamples = 31", shape="box"] ;
286 -> 287 ;
288 [label="X[2] <= 50.5000\ngini = 0.489795918367\nsamples = 7", shape="box"] ;
287 -> 288 ;
289 [label="gini = 0.0000\nsamples = 4\nvalue = [ 0.  4.]", shape="box"] ;
288 -> 289 ;
290 [label="gini = 0.0000\nsamples = 3\nvalue = [ 3.  0.]", shape="box"] ;
288 -> 290 ;
291 [label="X[2] <= 47.5000\ngini = 0.152777777778\nsamples = 24", shape="box"] ;
287 -> 291 ;
292 [label="X[5] <= 30.5979\ngini = 0.0867768595041\nsamples = 22", shape="box"] ;
291 -> 292 ;
293 [label="X[5] <= 30.2854\ngini = 0.244897959184\nsamples = 7", shape="box"] ;
292 -> 293 ;
294 [label="gini = 0.0000\nsamples = 6\nvalue = [ 6.  0.]", shape="box"] ;
293 -> 294 ;
295 [label="gini = 0.0000\nsamples = 1\nvalue = [ 0.  1.]", shape="box"] ;
293 -> 295 ;
296 [label="gini = 0.0000\nsamples = 15\nvalue = [ 15.   0.]", shape="box"] ;
292 -> 296 ;
297 [label="X[7] <= 1.0000\ngini = 0.5\nsamples = 2", shape="box"] ;
291 -> 297 ;
298 [label="gini = 0.0000\nsamples = 1\nvalue = [ 1.  0.]", shape="box"] ;
297 -> 298 ;
299 [label="gini = 0.0000\nsamples = 1\nvalue = [ 0.  1.]", shape="box"] ;
297 -> 299 ;
300 [label="X[2] <= 30.0000\ngini = 0.408163265306\nsamples = 7", shape="box"] ;
286 -> 300 ;
301 [label="X[2] <= 27.0000\ngini = 0.48\nsamples = 5", shape="box"] ;
300 -> 301 ;
302 [label="X[2] <= 13.0000\ngini = 0.375\nsamples = 4", shape="box"] ;
301 -> 302 ;
303 [label="gini = 0.4444\nsamples = 3\nvalue = [ 1.  2.]", shape="box"] ;
302 -> 303 ;
304 [label="gini = 0.0000\nsamples = 1\nvalue = [ 0.  1.]", shape="box"] ;
302 -> 304 ;
305 [label="gini = 0.0000\nsamples = 1\nvalue = [ 1.  0.]", shape="box"] ;
301 -> 305 ;
306 [label="gini = 0.0000\nsamples = 2\nvalue = [ 0.  2.]", shape="box"] ;
300 -> 306 ;
307 [label="X[2] <= 9.5000\ngini = 0.367309458219\nsamples = 66", shape="box"] ;
135 -> 307 ;
308 [label="X[3] <= 2.0000\ngini = 0.493079584775\nsamples = 34", shape="box"] ;
307 -> 308 ;
309 [label="X[2] <= 0.2100\ngini = 0.124444444444\nsamples = 15", shape="box"] ;
308 -> 309 ;
310 [label="X[5] <= 19.3479\ngini = 0.444444444444\nsamples = 3", shape="box"] ;
309 -> 310 ;
311 [label="gini = 0.0000\nsamples = 2\nvalue = [ 0.  2.]", shape="box"] ;
310 -> 311 ;
312 [label="gini = 0.0000\nsamples = 1\nvalue = [ 1.  0.]", shape="box"] ;
310 -> 312 ;
313 [label="gini = 0.0000\nsamples = 12\nvalue = [  0.  12.]", shape="box"] ;
309 -> 313 ;
314 [label="X[2] <= 2.5000\ngini = 0.0997229916898\nsamples = 19", shape="box"] ;
308 -> 314 ;
315 [label="gini = 0.0000\nsamples = 10\nvalue = [ 10.   0.]", shape="box"] ;
314 -> 315 ;
316 [label="X[2] <= 3.5000\ngini = 0.197530864198\nsamples = 9", shape="box"] ;
314 -> 316 ;
317 [label="gini = 0.0000\nsamples = 1\nvalue = [ 0.  1.]", shape="box"] ;
316 -> 317 ;
318 [label="gini = 0.0000\nsamples = 8\nvalue = [ 8.  0.]", shape="box"] ;
316 -> 318 ;
319 [label="X[7] <= 0.5000\ngini = 0.060546875\nsamples = 32", shape="box"] ;
307 -> 319 ;
320 [label="X[2] <= 22.5000\ngini = 0.277777777778\nsamples = 6", shape="box"] ;
319 -> 320 ;
321 [label="X[5] <= 11.4854\ngini = 0.444444444444\nsamples = 3", shape="box"] ;
320 -> 321 ;
322 [label="gini = 0.0000\nsamples = 2\nvalue = [ 2.  0.]", shape="box"] ;
321 -> 322 ;
323 [label="gini = 0.0000\nsamples = 1\nvalue = [ 0.  1.]", shape="box"] ;
321 -> 323 ;
324 [label="gini = 0.0000\nsamples = 3\nvalue = [ 3.  0.]", shape="box"] ;
320 -> 324 ;
325 [label="gini = 0.0000\nsamples = 26\nvalue = [ 26.   0.]", shape="box"] ;
319 -> 325 ;
326 [label="X[5] <= 7.9000\ngini = 0.488608045568\nsamples = 106", shape="box"] ;
134 -> 326 ;
327 [label="gini = 0.0000\nsamples = 8\nvalue = [ 8.  0.]", shape="box"] ;
326 -> 327 ;
328 [label="X[2] <= 43.0000\ngini = 0.496668054977\nsamples = 98", shape="box"] ;
326 -> 328 ;
329 [label="X[6] <= 4.5000\ngini = 0.486111111111\nsamples = 60", shape="box"] ;
328 -> 329 ;
330 [label="X[5] <= 387.6646\ngini = 0.5\nsamples = 48", shape="box"] ;
329 -> 330 ;
331 [label="X[5] <= 152.5063\ngini = 0.499054820416\nsamples = 46", shape="box"] ;
330 -> 331 ;
332 [label="X[4] <= 1.5000\ngini = 0.497323022011\nsamples = 41", shape="box"] ;
331 -> 332 ;
333 [label="X[2] <= 37.5000\ngini = 0.498456790123\nsamples = 36", shape="box"] ;
332 -> 333 ;
334 [label="X[5] <= 37.8125\ngini = 0.488521579431\nsamples = 33", shape="box"] ;
333 -> 334 ;
335 [label="X[2] <= 35.0000\ngini = 0.4921875\nsamples = 16", shape="box"] ;
334 -> 335 ;
336 [label="X[5] <= 28.7250\ngini = 0.459183673469\nsamples = 14", shape="box"] ;
335 -> 336 ;
337 [label="X[2] <= 14.0000\ngini = 0.48\nsamples = 5", shape="box"] ;
336 -> 337 ;
338 [label="gini = 0.0000\nsamples = 2\nvalue = [ 2.  0.]", shape="box"] ;
337 -> 338 ;
339 [label="X[5] <= 27.1500\ngini = 0.444444444444\nsamples = 3", shape="box"] ;
337 -> 339 ;
340 [label="gini = 0.0000\nsamples = 2\nvalue = [ 0.  2.]", shape="box"] ;
339 -> 340 ;
341 [label="gini = 0.0000\nsamples = 1\nvalue = [ 1.  0.]", shape="box"] ;
339 -> 341 ;
342 [label="X[7] <= 1.0000\ngini = 0.345679012346\nsamples = 9", shape="box"] ;
336 -> 342 ;
343 [label="gini = 0.0000\nsamples = 3\nvalue = [ 0.  3.]", shape="box"] ;
342 -> 343 ;
344 [label="X[2] <= 28.5000\ngini = 0.444444444444\nsamples = 6", shape="box"] ;
342 -> 344 ;
345 [label="X[5] <= 32.7500\ngini = 0.32\nsamples = 5", shape="box"] ;
344 -> 345 ;
346 [label="gini = 0.0000\nsamples = 2\nvalue = [ 0.  2.]", shape="box"] ;
345 -> 346 ;
347 [label="X[5] <= 35.2500\ngini = 0.444444444444\nsamples = 3", shape="box"] ;
345 -> 347 ;
348 [label="gini = 0.0000\nsamples = 1\nvalue = [ 1.  0.]", shape="box"] ;
347 -> 348 ;
349 [label="gini = 0.0000\nsamples = 2\nvalue = [ 0.  2.]", shape="box"] ;
347 -> 349 ;
350 [label="gini = 0.0000\nsamples = 1\nvalue = [ 1.  0.]", shape="box"] ;
344 -> 350 ;
351 [label="gini = 0.0000\nsamples = 2\nvalue = [ 2.  0.]", shape="box"] ;
335 -> 351 ;
352 [label="X[6] <= 3.5000\ngini = 0.415224913495\nsamples = 17", shape="box"] ;
334 -> 352 ;
353 [label="X[5] <= 55.0500\ngini = 0.277777777778\nsamples = 12", shape="box"] ;
352 -> 353 ;
354 [label="gini = 0.0000\nsamples = 6\nvalue = [ 6.  0.]", shape="box"] ;
353 -> 354 ;
355 [label="X[6] <= 2.5000\ngini = 0.444444444444\nsamples = 6", shape="box"] ;
353 -> 355 ;
356 [label="X[2] <= 24.5000\ngini = 0.444444444444\nsamples = 3", shape="box"] ;
355 -> 356 ;
357 [label="gini = 0.0000\nsamples = 1\nvalue = [ 1.  0.]", shape="box"] ;
356 -> 357 ;
358 [label="gini = 0.0000\nsamples = 2\nvalue = [ 0.  2.]", shape="box"] ;
356 -> 358 ;
359 [label="gini = 0.0000\nsamples = 3\nvalue = [ 3.  0.]", shape="box"] ;
355 -> 359 ;
360 [label="X[2] <= 22.0000\ngini = 0.48\nsamples = 5", shape="box"] ;
352 -> 360 ;
361 [label="gini = 0.0000\nsamples = 2\nvalue = [ 2.  0.]", shape="box"] ;
360 -> 361 ;
362 [label="gini = 0.0000\nsamples = 3\nvalue = [ 0.  3.]", shape="box"] ;
360 -> 362 ;
363 [label="gini = 0.0000\nsamples = 3\nvalue = [ 0.  3.]", shape="box"] ;
333 -> 363 ;
364 [label="gini = 0.0000\nsamples = 5\nvalue = [ 0.  5.]", shape="box"] ;
332 -> 364 ;
365 [label="gini = 0.0000\nsamples = 5\nvalue = [ 5.  0.]", shape="box"] ;
331 -> 365 ;
366 [label="gini = 0.0000\nsamples = 2\nvalue = [ 0.  2.]", shape="box"] ;
330 -> 366 ;
367 [label="X[4] <= 1.5000\ngini = 0.152777777778\nsamples = 12", shape="box"] ;
329 -> 367 ;
368 [label="gini = 0.0000\nsamples = 11\nvalue = [  0.  11.]", shape="box"] ;
367 -> 368 ;
369 [label="gini = 0.0000\nsamples = 1\nvalue = [ 1.  0.]", shape="box"] ;
367 -> 369 ;
370 [label="X[2] <= 47.5000\ngini = 0.387811634349\nsamples = 38", shape="box"] ;
328 -> 370 ;
371 [label="gini = 0.0000\nsamples = 10\nvalue = [ 10.   0.]", shape="box"] ;
370 -> 371 ;
372 [label="X[2] <= 49.5000\ngini = 0.459183673469\nsamples = 28", shape="box"] ;
370 -> 372 ;
373 [label="X[5] <= 99.9938\ngini = 0.277777777778\nsamples = 6", shape="box"] ;
372 -> 373 ;
374 [label="gini = 0.0000\nsamples = 5\nvalue = [ 0.  5.]", shape="box"] ;
373 -> 374 ;
375 [label="gini = 0.0000\nsamples = 1\nvalue = [ 1.  0.]", shape="box"] ;
373 -> 375 ;
376 [label="X[2] <= 75.5000\ngini = 0.351239669421\nsamples = 22", shape="box"] ;
372 -> 376 ;
377 [label="X[2] <= 60.5000\ngini = 0.308390022676\nsamples = 21", shape="box"] ;
376 -> 377 ;
378 [label="X[5] <= 28.1250\ngini = 0.426035502959\nsamples = 13", shape="box"] ;
377 -> 378 ;
379 [label="gini = 0.0000\nsamples = 1\nvalue = [ 0.  1.]", shape="box"] ;
378 -> 379 ;
380 [label="X[2] <= 59.0000\ngini = 0.375\nsamples = 12", shape="box"] ;
378 -> 380 ;
381 [label="X[5] <= 43.6813\ngini = 0.297520661157\nsamples = 11", shape="box"] ;
380 -> 381 ;
382 [label="X[2] <= 53.5000\ngini = 0.48\nsamples = 5", shape="box"] ;
381 -> 382 ;
383 [label="gini = 0.0000\nsamples = 1\nvalue = [ 0.  1.]", shape="box"] ;
382 -> 383 ;
384 [label="X[5] <= 33.0979\ngini = 0.375\nsamples = 4", shape="box"] ;
382 -> 384 ;
385 [label="gini = 0.0000\nsamples = 3\nvalue = [ 3.  0.]", shape="box"] ;
384 -> 385 ;
386 [label="gini = 0.0000\nsamples = 1\nvalue = [ 0.  1.]", shape="box"] ;
384 -> 386 ;
387 [label="gini = 0.0000\nsamples = 6\nvalue = [ 6.  0.]", shape="box"] ;
381 -> 387 ;
388 [label="gini = 0.0000\nsamples = 1\nvalue = [ 0.  1.]", shape="box"] ;
380 -> 388 ;
389 [label="gini = 0.0000\nsamples = 8\nvalue = [ 8.  0.]", shape="box"] ;
377 -> 389 ;
390 [label="gini = 0.0000\nsamples = 1\nvalue = [ 0.  1.]", shape="box"] ;
376 -> 390 ;
}